-0.048385437577962875
-0.05347680300474167
-0.002052564173936844
0.055754560977220535
-0.008696584030985832
-0.00725143775343895
-0.05179288238286972
-0.03309091180562973
0.010613642632961273
-0.021410103887319565
0.003480547573417425
-0.049527961760759354
-0.022642338648438454
0.012899362482130527
-0.06479056924581528
-0.003324043471366167
-0.03192410618066788
-0.038142088800668716
0.0070349304005503654
0.054837435483932495
-0.04127887263894081
-0.023237651214003563
-0.04239111766219139
0.004082762636244297
-0.04703730344772339
-0.023093290627002716
0.19075077772140503
0.01417238637804985
0.050514522939920425
0.19656239449977875
0.005922249518334866
-0.005942467600107193
0.004255618434399366
-0.017712770029902458
0.07836338877677917
0.015143436379730701
0.002473600907251239
0.012366008944809437
-0.012264398857951164
0.034961067140102386
-0.05816343054175377
0.0047247144393622875
-0.028404884040355682
0.08648005872964859
-0.019785311073064804
-0.01142806001007557
-0.04001748561859131
0.016527583822607994
-0.041786350309848785
0.04459371417760849
0.048753008246421814
0.06458130478858948
0.029691629111766815
0.0003636053588707
0.01900903694331646
0.06106453388929367
0.13656070828437805
0.23704002797603607
0.027448898181319237
-0.00775194400921464
0.07271413505077362
0.026244042441248894
-0.027718575671315193
-0.0049901180900633335
-0.01499589066952467
0.1350591629743576
0.023775670677423477
-0.03759549558162689
0.04488702490925789
0.06591600924730301
0.032036881893873215
-0.012620153836905956
0.10476981103420258
0.006027288734912872
0.1017160639166832
0.035223811864852905
-0.05362245440483093
0.04872783645987511
-0.012879345566034317
-0.01217075064778328
-0.05294431000947952
0.02767886221408844
-0.005522074177861214
0.010482972487807274
0.013030663132667542
-0.03949648514389992
-0.025922199711203575
0.004392127972096205
-0.03312896937131882
-0.018769679591059685
0.0573839507997036
0.09002942591905594
0.09742750972509384
0.09665153920650482
0.09616155177354813
-0.04342859983444214
-0.05003729835152626
0.09766387194395065
-0.040609512478113174
-0.016080588102340698
-0.023928819224238396
-0.02765618823468685
-0.05059463158249855
0.11271138489246368
-0.004707131069153547
-0.004360553342849016
0.07458944618701935
-0.0026495775673538446
0.0026463952381163836
-0.023874474689364433
0.03577614948153496
-0.02644496224820614
-0.020192380994558334
0.03864681348204613
0.013594419695436954
-0.02085672877728939
-0.011655055917799473
0.042664382606744766
0.04221775010228157
-0.06073829531669617