-0.13716794550418854
-0.07558218389749527
0.00826991070061922
-0.0740281343460083
0.11188393086194992
-0.03191360458731651
0.06029288470745087
-0.04100872576236725
-0.022512052208185196
-0.04112266004085541
0.13148081302642822
-0.02196916937828064
0.24701173603534698
0.04375666752457619
0.1474463790655136
0.05456138029694557
0.03671599179506302
0.2617720663547516
-0.05536644533276558
-0.1283818781375885
0.17135781049728394
0.2231597900390625
0.36740586161613464
0.019674276933073997
-0.02814524434506893
-0.04792169854044914
0.08406227827072144
0.07272681593894958
0.10193286836147308
0.09364438056945801
-0.008746449835598469
-0.060275789350271225
-0.09246045351028442
-0.0326770655810833
0.0817699134349823
0.07236768305301666
-0.03684353083372116
-0.07222104072570801
0.11096266657114029
0.09153206646442413
0.10179425030946732
-0.06407807022333145
0.030993180349469185
0.13278599083423615
0.08751604706048965
0.02979176864027977
0.059708110988140106
0.1972476840019226
-0.08481388539075851
-0.020992174744606018
0.00010491119610378519
-0.08149828016757965
-0.06626487523317337
0.1467638611793518
0.07232266664505005
0.06949924677610397
0.02287040837109089
-0.04649585485458374
0.12943410873413086
0.15880806744098663
0.34349754452705383
0.09442022442817688
0.10011119395494461
-0.07820379734039307
0.12572918832302094
-0.03434182330965996
0.09194894880056381
-0.08491009473800659
0.3836752474308014
0.007445984054356813
0.10986891388893127
-0.060629844665527344
-0.018298154696822166
-0.07352772355079651
0.037590865045785904
0.12164144963026047
-0.0015998076414689422
-0.016487322747707367
0.14097121357917786
-0.04955940321087837
0.027953503653407097
0.1252412647008896
0.022061116993427277
0.06775007396936417